{
  "layers": [4, 10, 10, 2],
  "weights": [
    [
      [
        -0.4953299223882046, 0.027216659218118337, 0.03597160357032344,
        -6.220061455198317
      ],
      [
        0.6993049825897647, 0.00019341945059129424, 0.000144372821492668,
        8.612515258905379
      ],
      [
        0.3200619861466478, -0.01602562149712934, -0.021218509667722485,
        -4.221574139161133
      ],
      [
        -0.07324100192414207, -0.0038656845361014183, -0.00005398400648078323,
        6.251192830079254
      ],
      [
        -0.5732478542525997, -0.00005379701894551404, -0.0001277205653393467,
        1.891075055711137
      ],
      [
        -0.2203505953537032, -0.007415495799458745, -0.009804360438063212,
        -7.356515014434826
      ],
      [
        -0.7428921739155693, 0.0002810676702794052, 0.00011242229952824613,
        -3.2707658267111093
      ],
      [
        0.7147092220892601, -0.45108067248545525, -0.7677385803588275,
        -0.34517640065522515
      ],
      [
        -0.7385188635960243, 0.044483634606248476, 2.4843099460657823,
        0.3624650155793809
      ],
      [
        -0.8587488722375384, 0.6562365976398205, -1.659156852479084,
        0.6253937897239097
      ]
    ],
    [
      [
        -1.0340078975848939, 1.4914918058206406, -0.5499558690364653,
        2.5605769734709907, 1.139216593144522, -0.6497496709019882,
        -0.21309135961965053, 0.8832523914387647, 0.3942182539584985,
        0.6799958970495995
      ],
      [
        3.0292593107055703, 5.28840601130061, 0.8498233640105998,
        -3.157576724573483, 1.9018001121332522, 2.053961407150256,
        -1.9958333494453093, 0.335833319841915, -0.4198155950231543,
        -0.19088127953401088
      ],
      [
        -1.7613130691641101, -5.969332484050525, -3.6179373305463547,
        -0.19659964004728692, 1.6239969371606937, 1.4419715556214876,
        0.7225287158834313, 0.22231914131911545, 0.12617839876209339,
        -0.01442222978917376
      ],
      [
        -0.42835860254715535, -0.41323176552967217, 0.5794684448359063,
        0.8564279735888491, -0.7124958605710112, 0.8595680553425721,
        -0.9861766069332438, -0.6167507766599909, -0.8843386460119532,
        -0.7737677564595352
      ],
      [
        1.2072706901486876, -0.5206879868078461, -0.27225512668768076,
        -0.855360689128323, -0.5847880693139299, -0.1893489157444208,
        -0.42302359929253264, 0.6750087025861584, 0.7214693187990562,
        -0.05502851471116191
      ],
      [
        0.7671435982322587, 4.113427735189935, 0.40402769546894396,
        2.1981371807552885, -2.121349298078218, -0.11783056521529335,
        -3.627504897177555, -0.6552236799411479, -0.5973615784538713,
        0.2547615737584244
      ],
      [
        1.3546781617323054, -1.1716530514368058, 0.33271754178212654,
        -0.06440625349207177, 0.2487631551147113, 4.224293796554323,
        -0.6994893423977783, 0.7673464781597854, -0.7129493761396681,
        0.5740884660835567
      ],
      [
        0.44415516941524474, 3.972916630875726, -0.1564769515031436,
        3.7035538593682995, 0.33421128019169755, 0.24802080253942596,
        -0.40269133359971493, 0.878436551460958, -2.1750866551115036,
        0.058164563960925494
      ],
      [
        -0.9609394494590027, -1.125565985513253, -0.725334211175356,
        0.23778979135450817, 0.35503225824057005, -0.5062701040182861,
        -0.6316691667873112, -0.41296522473188113, -0.7857791549795649,
        -0.42051987743768476
      ],
      [
        3.7649228345710863, 2.9688427830775996, 1.061661936635886,
        -2.1792659811877657, 0.16207711591801244, 4.956144303641028,
        -2.562098940395579, -0.8512052253377438, -1.7125710109875945,
        1.0972276287038911
      ]
    ],
    [
      [
        0.9217768508543736, -3.693587785830076, 4.81215703531173,
        0.12362580952001567, -0.6325484546638749, 4.1295706745744525,
        2.58761884374812, 2.3131364834318036, -0.84054019180859,
        -5.0850795547038645
      ],
      [
        -0.9248488829837636, 3.6942269216603476, -4.812792887843611,
        1.1584732427809583, 0.47295204448654143, -4.131145664638951,
        -2.585574047040226, -2.312189789728469, 0.7892986600737076,
        5.088549022459033
      ]
    ]
  ],
  "biases": [
    [
      2.2932075659111977, -2.9894653502520088, 1.2864271786962966,
      -5.001134166552084, -1.3238510355222648, 1.648676986272846,
      4.012923073920362, -0.6187995261266346, -2.591370713175855,
      -0.9133384961985014
    ],
    [
      -0.10328762200818185, -2.2160885859124013, 0.7633801795486623,
      0.08667984528924368, -0.10368519784185268, -1.5198909186009766,
      0.03134223938419699, -0.7211605362542505, 0.04547276639547891,
      -4.607254683986947
    ],
    [-4.540138932405552, 4.54013800288129]
  ]
}
